digraph Tree {
node [shape=box] ;
0 [label="grade <= 8.5\nmse = 131485781453.176\nsamples = 14834\nvalue = 538684.163"] ;
1 [label="sqft_living <= 2017.0\nmse = 38600191835.384\nsamples = 11946\nvalue = 437097.786"] ;
0 -> 1 [labeldistance=2.5, labelangle=45, headlabel="True"] ;
2 [label="mse = 23358694360.884\nsamples = 7949\nvalue = 382079.047"] ;
1 -> 2 ;
3 [label="mse = 50919238033.706\nsamples = 3997\nvalue = 546515.838"] ;
1 -> 3 ;
4 [label="sqft_living <= 3885.0\nmse = 296441243068.161\nsamples = 2888\nvalue = 958888.755"] ;
0 -> 4 [labeldistance=2.5, labelangle=-45, headlabel="False"] ;
5 [label="mse = 115938491407.207\nsamples = 2315\nvalue = 822009.946"] ;
4 -> 5 ;
6 [label="mse = 644182770022.362\nsamples = 573\nvalue = 1511898.257"] ;
4 -> 6 ;
}